<?xml version="1.0"?>
<opencv_storage>
<cascade>
  <stageType>BOOST</stageType>
  <featureType>HAAR</featureType>
  <height>20</height>
  <width>20</width>
  <stageParams>
    <boostType>GAB</boostType>
    <minHitRate>9.9900001287460327e-01</minHitRate>
    <maxFalseAlarm>3.0000001192092896e-01</maxFalseAlarm>
    <weightTrimRate>9.4999999999999996e-01</weightTrimRate>
    <maxDepth>1</maxDepth>
    <maxWeakCount>100</maxWeakCount></stageParams>
  <featureParams>
    <maxCatCount>0</maxCatCount>
    <featSize>1</featSize>
    <mode>BASIC</mode></featureParams>
  <stageNum>6</stageNum>
  <stages>
    <!-- stage 0 -->
    <_>
      <maxWeakCount>1</maxWeakCount>
      <stageThreshold>1.</stageThreshold>
      <weakClassifiers>
        <_>
          <internalNodes>
            0 -1 2 -1.7073543369770050e-01</internalNodes>
          <leafValues>
            1. -1.</leafValues></_></weakClassifiers></_>
    <!-- stage 1 -->
    <_>
      <maxWeakCount>2</maxWeakCount>
      <stageThreshold>-7.2158403694629669e-02</stageThreshold>
      <weakClassifiers>
        <_>
          <internalNodes>
            0 -1 6 1.3344258069992065e-01</internalNodes>
          <leafValues>
            -9.7297298908233643e-01 8.9610391855239868e-01</leafValues></_>
        <_>
          <internalNodes>
            0 -1 0 8.1474713981151581e-02</internalNodes>
          <leafValues>
            -9.6826231479644775e-01 9.0489625930786133e-01</leafValues></_></weakClassifiers></_>
    <!-- stage 2 -->
    <_>
      <maxWeakCount>2</maxWeakCount>
      <stageThreshold>-1.7396263778209686e-01</stageThreshold>
      <weakClassifiers>
        <_>
          <internalNodes>
            0 -1 5 1.1564251780509949e-01</internalNodes>
          <leafValues>
            -9.5804196596145630e-01 7.5609755516052246e-01</leafValues></_>
        <_>
          <internalNodes>
            0 -1 9 -4.0340726263821125e-04</internalNodes>
          <leafValues>
            8.2470989227294922e-01 -9.3006020784378052e-01</leafValues></_></weakClassifiers></_>
    <!-- stage 3 -->
    <_>
      <maxWeakCount>2</maxWeakCount>
      <stageThreshold>-1.9524225592613220e-01</stageThreshold>
      <weakClassifiers>
        <_>
          <internalNodes>
            0 -1 3 -5.7620704174041748e-02</internalNodes>
          <leafValues>
            8.1818181276321411e-01 -9.3243241310119629e-01</leafValues></_>
        <_>
          <internalNodes>
            0 -1 7 -1.7162807285785675e-02</internalNodes>
          <leafValues>
            -9.8003959655761719e-01 7.3719018697738647e-01</leafValues></_></weakClassifiers></_>
    <!-- stage 4 -->
    <_>
      <maxWeakCount>2</maxWeakCount>
      <stageThreshold>-1.7357076704502106e-01</stageThreshold>
      <weakClassifiers>
        <_>
          <internalNodes>
            0 -1 8 9.1710045933723450e-02</internalNodes>
          <leafValues>
            -8.9999997615814209e-01 8.0000001192092896e-01</leafValues></_>
        <_>
          <internalNodes>
            0 -1 4 2.2285869345068932e-03</internalNodes>
          <leafValues>
            -9.7357076406478882e-01 7.2846239805221558e-01</leafValues></_></weakClassifiers></_>
    <!-- stage 5 -->
    <_>
      <maxWeakCount>2</maxWeakCount>
      <stageThreshold>-2.3391793668270111e-01</stageThreshold>
      <weakClassifiers>
        <_>
          <internalNodes>
            0 -1 1 6.0673039406538010e-02</internalNodes>
          <leafValues>
            -9.8591548204421997e-01 7.8313255310058594e-01</leafValues></_>
        <_>
          <internalNodes>
            0 -1 10 -8.1037369091063738e-04</internalNodes>
          <leafValues>
            7.5199753046035767e-01 -9.7318977117538452e-01</leafValues></_></weakClassifiers></_></stages>
  <features>
    <_>
      <rects>
        <_>
          0 3 4 14 -1.</_>
        <_>
          2 3 2 14 2.</_></rects>
      <tilted>0</tilted></_>
    <_>
      <rects>
        <_>
          0 6 4 14 -1.</_>
        <_>
          2 6 2 14 2.</_></rects>
      <tilted>0</tilted></_>
    <_>
      <rects>
        <_>
          1 5 12 9 -1.</_>
        <_>
          1 8 12 3 2.</_></rects>
      <tilted>0</tilted></_>
    <_>
      <rects>
        <_>
          1 15 14 4 -1.</_>
        <_>
          1 17 14 2 2.</_></rects>
      <tilted>0</tilted></_>
    <_>
      <rects>
        <_>
          2 0 18 3 -1.</_>
        <_>
          8 0 6 3 2.</_></rects>
      <tilted>0</tilted></_>
    <_>
      <rects>
        <_>
          4 0 13 6 -1.</_>
        <_>
          4 3 13 3 2.</_></rects>
      <tilted>0</tilted></_>
    <_>
      <rects>
        <_>
          8 0 10 16 -1.</_>
        <_>
          8 0 5 8 2.</_>
        <_>
          13 8 5 8 2.</_></rects>
      <tilted>0</tilted></_>
    <_>
      <rects>
        <_>
          11 13 9 7 -1.</_>
        <_>
          14 13 3 7 2.</_></rects>
      <tilted>0</tilted></_>
    <_>
      <rects>
        <_>
          14 2 4 14 -1.</_>
        <_>
          14 9 4 7 2.</_></rects>
      <tilted>0</tilted></_>
    <_>
      <rects>
        <_>
          15 13 2 1 -1.</_>
        <_>
          16 13 1 1 2.</_></rects>
      <tilted>0</tilted></_>
    <_>
      <rects>
        <_>
          17 13 2 1 -1.</_>
        <_>
          18 13 1 1 2.</_></rects>
      <tilted>0</tilted></_></features></cascade>
</opencv_storage>
